<?xml version="1.0"?>
<opencv_storage>
<cascade>
  <stageType>BOOST</stageType>
  <featureType>HAAR</featureType>
  <height>24</height>
  <width>24</width>
  <stageParams>
    <boostType>GAB</boostType>
    <minHitRate>9.9500000476837158e-01</minHitRate>
    <maxFalseAlarm>5.0000000000000000e-01</maxFalseAlarm>
    <weightTrimRate>9.4999998807907104e-01</weightTrimRate>
    <maxDepth>1</maxDepth>
    <maxWeakCount>100</maxWeakCount></stageParams>
  <featureParams>
    <maxCatCount>0</maxCatCount>
    <featSize>1</featSize>
    <mode>BASIC</mode></featureParams>
  <stageNum>7</stageNum>
  <stages>
    <!-- stage 0 -->
    <_>
      <maxWeakCount>2</maxWeakCount>
      <stageThreshold>-1.3941383361816406e-01</stageThreshold>
      <weakClassifiers>
        <_>
          <internalNodes>
            0 -1 14 -5.4141777753829956e-01</internalNodes>
          <leafValues>
            9.7959184646606445e-01 -9.9800002574920654e-01</leafValues></_>
        <_>
          <internalNodes>
            0 -1 17 -3.8034468889236450e-02</internalNodes>
          <leafValues>
            8.5858619213104248e-01 -9.9796128273010254e-01</leafValues></_></weakClassifiers></_>
    <!-- stage 1 -->
    <_>
      <maxWeakCount>3</maxWeakCount>
      <stageThreshold>-1.3961262702941895e+00</stageThreshold>
      <weakClassifiers>
        <_>
          <internalNodes>
            0 -1 16 -1.8159333616495132e-02</internalNodes>
          <leafValues>
            6.3157892227172852e-01 -9.8983740806579590e-01</leafValues></_>
        <_>
          <internalNodes>
            0 -1 0 2.7116954326629639e-02</internalNodes>
          <leafValues>
            -9.8638391494750977e-01 6.9638156890869141e-01</leafValues></_>
        <_>
          <internalNodes>
            0 -1 13 2.0577490431605838e-05</internalNodes>
          <leafValues>
            -1. 5.8009499311447144e-01</leafValues></_></weakClassifiers></_>
    <!-- stage 2 -->
    <_>
      <maxWeakCount>3</maxWeakCount>
      <stageThreshold>-1.3989120721817017e+00</stageThreshold>
      <weakClassifiers>
        <_>
          <internalNodes>
            0 -1 12 -1.1570267379283905e-01</internalNodes>
          <leafValues>
            3.7500000000000000e-01 -9.7938144207000732e-01</leafValues></_>
        <_>
          <internalNodes>
            0 -1 15 -5.2341103553771973e-01</internalNodes>
          <leafValues>
            5.9525495767593384e-01 -9.3397170305252075e-01</leafValues></_>
        <_>
          <internalNodes>
            0 -1 5 5.7419324293732643e-03</internalNodes>
          <leafValues>
            -1. 5.1444107294082642e-01</leafValues></_></weakClassifiers></_>
    <!-- stage 3 -->
    <_>
      <maxWeakCount>3</maxWeakCount>
      <stageThreshold>-1.5042667388916016e+00</stageThreshold>
      <weakClassifiers>
        <_>
          <internalNodes>
            0 -1 8 -1.2368177622556686e-01</internalNodes>
          <leafValues>
            6.4285713434219360e-01 -9.8782962560653687e-01</leafValues></_>
        <_>
          <internalNodes>
            0 -1 1 -1.3272145390510559e-01</internalNodes>
          <leafValues>
            5.3986662626266479e-01 -9.6489703655242920e-01</leafValues></_>
        <_>
          <internalNodes>
            0 -1 10 6.3022460381034762e-05</internalNodes>
          <leafValues>
            -1. 4.4845986366271973e-01</leafValues></_></weakClassifiers></_>
    <!-- stage 4 -->
    <_>
      <maxWeakCount>2</maxWeakCount>
      <stageThreshold>-6.4553874731063843e-01</stageThreshold>
      <weakClassifiers>
        <_>
          <internalNodes>
            0 -1 4 -4.1994673013687134e-01</internalNodes>
          <leafValues>
            -7.2164945304393768e-02 -9.8230087757110596e-01</leafValues></_>
        <_>
          <internalNodes>
            0 -1 2 -1.7273388803005219e-02</internalNodes>
          <leafValues>
            3.3676213026046753e-01 -1.</leafValues></_></weakClassifiers></_>
    <!-- stage 5 -->
    <_>
      <maxWeakCount>3</maxWeakCount>
      <stageThreshold>-1.7298246622085571e+00</stageThreshold>
      <weakClassifiers>
        <_>
          <internalNodes>
            0 -1 7 -7.0886510610580444e-01</internalNodes>
          <leafValues>
            9.2000001668930054e-01 -9.9599200487136841e-01</leafValues></_>
        <_>
          <internalNodes>
            0 -1 11 -6.1013466119766235e-01</internalNodes>
          <leafValues>
            7.6258772611618042e-01 -9.8345965147018433e-01</leafValues></_>
        <_>
          <internalNodes>
            0 -1 18 2.1819048924953677e-05</internalNodes>
          <leafValues>
            -9.9450278282165527e-01 2.4962700903415680e-01</leafValues></_></weakClassifiers></_>
    <!-- stage 6 -->
    <_>
      <maxWeakCount>3</maxWeakCount>
      <stageThreshold>-1.6208255290985107e+00</stageThreshold>
      <weakClassifiers>
        <_>
          <internalNodes>
            0 -1 3 -5.2034938335418701e-01</internalNodes>
          <leafValues>
            5.4782611131668091e-01 -9.8168867826461792e-01</leafValues></_>
        <_>
          <internalNodes>
            0 -1 6 -8.0762112140655518e-01</internalNodes>
          <leafValues>
            2.9474008083343506e-01 -9.8568576574325562e-01</leafValues></_>
        <_>
          <internalNodes>
            0 -1 9 -1.5456328401342034e-04</internalNodes>
          <leafValues>
            3.4654900431632996e-01 -1.</leafValues></_></weakClassifiers></_></stages>
  <features>
    <_>
      <rects>
        <_>
          0 11 12 4 -1.</_>
        <_>
          0 13 12 2 2.</_></rects>
      <tilted>0</tilted></_>
    <_>
      <rects>
        <_>
          0 13 24 3 -1.</_>
        <_>
          12 13 12 3 2.</_></rects>
      <tilted>0</tilted></_>
    <_>
      <rects>
        <_>
          0 17 7 6 -1.</_>
        <_>
          0 20 7 3 2.</_></rects>
      <tilted>0</tilted></_>
    <_>
      <rects>
        <_>
          1 3 22 15 -1.</_>
        <_>
          12 3 11 15 2.</_></rects>
      <tilted>0</tilted></_>
    <_>
      <rects>
        <_>
          1 4 22 12 -1.</_>
        <_>
          12 4 11 12 2.</_></rects>
      <tilted>0</tilted></_>
    <_>
      <rects>
        <_>
          1 12 4 2 -1.</_>
        <_>
          1 13 4 1 2.</_></rects>
      <tilted>0</tilted></_>
    <_>
      <rects>
        <_>
          2 1 22 23 -1.</_>
        <_>
          13 1 11 23 2.</_></rects>
      <tilted>0</tilted></_>
    <_>
      <rects>
        <_>
          2 3 22 20 -1.</_>
        <_>
          13 3 11 20 2.</_></rects>
      <tilted>0</tilted></_>
    <_>
      <rects>
        <_>
          3 8 16 7 -1.</_>
        <_>
          11 8 8 7 2.</_></rects>
      <tilted>0</tilted></_>
    <_>
      <rects>
        <_>
          3 22 1 2 -1.</_>
        <_>
          3 23 1 1 2.</_></rects>
      <tilted>0</tilted></_>
    <_>
      <rects>
        <_>
          4 4 2 1 -1.</_>
        <_>
          5 4 1 1 2.</_></rects>
      <tilted>0</tilted></_>
    <_>
      <rects>
        <_>
          4 5 20 19 -1.</_>
        <_>
          14 5 10 19 2.</_></rects>
      <tilted>0</tilted></_>
    <_>
      <rects>
        <_>
          4 13 20 3 -1.</_>
        <_>
          14 13 10 3 2.</_></rects>
      <tilted>0</tilted></_>
    <_>
      <rects>
        <_>
          5 8 2 1 -1.</_>
        <_>
          6 8 1 1 2.</_></rects>
      <tilted>0</tilted></_>
    <_>
      <rects>
        <_>
          8 0 16 20 -1.</_>
        <_>
          16 0 8 20 2.</_></rects>
      <tilted>0</tilted></_>
    <_>
      <rects>
        <_>
          9 0 14 23 -1.</_>
        <_>
          16 0 7 23 2.</_></rects>
      <tilted>0</tilted></_>
    <_>
      <rects>
        <_>
          12 2 10 1 -1.</_>
        <_>
          17 2 5 1 2.</_></rects>
      <tilted>0</tilted></_>
    <_>
      <rects>
        <_>
          13 16 6 7 -1.</_>
        <_>
          16 16 3 7 2.</_></rects>
      <tilted>0</tilted></_>
    <_>
      <rects>
        <_>
          22 16 1 2 -1.</_>
        <_>
          22 17 1 1 2.</_></rects>
      <tilted>0</tilted></_></features></cascade>
</opencv_storage>
